0.077769
0.067769
0.059573
0.049573
0.041377
0.033181
0.023181
0.013181
0.003181
-0.001410
-0.009607
-0.010578
-0.016976
-0.019776
-0.022579
-0.009202
-0.010231
-0.014852
-0.014100
-0.022310
-0.016185
-0.015462
-0.009377
-0.014028
-0.011556
-0.012657
-0.006637
-0.011310
-0.003572
-0.004695
0.004762
0.000061
0.002435
-0.000512
0.000056
-0.006424
-0.005871
-0.012337
-0.011801
-0.016538
-0.010766
-0.015495
-0.004523
-0.012777
-0.003582
-0.013582
-0.011401
-0.019663
-0.014012
-0.015340
-0.014947
-0.011109
-0.012454
-0.010378
-0.010042
-0.007982
-0.011110
-0.000529
-0.005374
0.000015
-0.008277
-0.002904
-0.004387
-0.004181
-0.009083
-0.007182
-0.010401
-0.006858
-0.010096
-0.008259
-0.006461
-0.009728
-0.007942
-0.002841
0.000554
0.007280
0.005618
0.003946
-0.002725
-0.001070
-0.004430
0.007124
0.008690
0.021782
0.021645
0.016571
0.022964
0.019527
0.017699
0.019123
0.018916
0.012171
0.016798
0.013288
0.014646
0.007883
0.007582
0.005653
0.006952
0.003389
0.007848
0.005865
0.007090
0.003484
0.004658
0.004237
0.005372
0.012845
0.012345
0.010249
0.006565
0.002874
0.002342
0.006488
0.004333
0.008443
0.003133
0.007179
0.001871
-0.000347
-0.004129
-0.003264
-0.007048
-0.006216
-0.011580
-0.010778
-0.008442
-0.007685
-0.005417
-0.009276
-0.005523
-0.004850
-0.002661
-0.000517
0.000104
-0.002334
0.005770
0.001808
0.003829
0.001329
-0.005674
-0.011182
-0.013687
-0.011743
-0.011315
-0.007921
-0.001618
-0.002731
-0.002400
-0.003562
-0.003254
-0.001517
-0.001269
0.000434
-0.002275
-0.002087
0.002450
0.002589
0.002708
0.002822
0.001461
0.004408
0.008737
0.008742
0.007317
0.007285
0.010070
0.008591
0.005667
0.001321
-0.005855
-0.003150
-0.003304
0.000743
-0.000858
-0.001077
-0.001317
-0.005733
-0.003228
0.002027
-0.003825
-0.002783
-0.003127
0.001984
0.000205
0.001159
0.002073
-0.002480
0.005194
-0.003450
0.002800
-0.004499
0.001670
-0.006986
-0.003544
-0.009524
0.004536
-0.001468
0.000496
