-0.067930
-0.057133
-0.051808
-0.041808
-0.036470
-0.028056
-0.019983
-0.026174
-0.015016
-0.018758
-0.008386
-0.012380
-0.002380
0.000471
0.007075
0.003303
0.011458
0.006327
0.016327
0.009895
0.015197
0.014377
0.017949
0.026140
0.014169
0.017499
0.027499
0.019085
0.020821
0.015763
0.023047
0.014840
0.012518
0.021516
0.017324
0.017181
0.015817
0.016457
0.022611
0.013232
0.010332
0.014094
0.015077
0.013391
0.022465
0.014500
0.007934
0.017934
0.014270
0.024270
0.012221
0.019325
0.011687
0.015958
0.010590
0.011568
0.010071
0.012012
0.010104
0.006131
0.007987
0.006629
0.002149
0.002293
0.001467
0.000176
-0.005216
-0.003745
-0.008158
-0.001227
-0.008525
-0.014176
-0.012202
-0.017678
-0.018348
-0.019474
-0.019809
-0.022536
-0.024730
-0.026639
-0.024619
-0.023567
-0.028264
-0.020421
-0.023380
-0.021994
-0.020128
-0.020394
-0.017300
-0.018750
-0.016131
-0.017311
-0.016122
-0.015142
-0.015368
-0.013462
-0.013231
-0.011801
-0.011098
-0.012083
-0.010918
-0.011235
-0.010827
-0.011402
-0.011060
-0.010228
-0.005069
-0.009656
-0.009404
-0.009449
-0.010012
-0.006428
-0.007791
-0.008745
-0.006975
-0.006017
-0.016971
-0.010787
-0.003071
-0.006379
-0.006412
-0.005190
0.000128
-0.000833
0.006025
0.002060
0.001193
0.002915
0.005932
0.009996
0.005902
0.007990
0.011942
0.010904
0.014215
0.013313
0.015439
0.014112
0.015823
0.017510
0.017678
0.019253
0.019000
0.017774
0.018230
0.024963
0.018074
0.014046
0.023148
0.016478
0.016173
0.018950
0.018844
0.018006
0.015154
0.021591
0.014296
0.017718
0.018453
0.014415
0.017684
0.018202
0.020020
0.017282
0.021406
0.012182
0.021117
0.014450
0.014393
0.013584
0.011908
0.020088
0.011285
0.013080
0.015226
0.012383
0.009419
0.012122
0.009379
0.003347
0.005086
0.005576
0.001189
0.007149
0.001743
0.001538
-0.000833
0.000874
-0.008810
-0.008129
-0.006218
-0.007363
-0.001225
-0.007697
-0.007284
-0.012269
-0.008928
-0.011854
-0.013562
-0.012613
-0.014476
-0.013646
-0.022184
-0.021512
-0.013384
-0.017471
-0.015551
-0.022255
-0.015112
-0.021537
-0.020783
-0.023524
-0.017457
-0.019793
-0.019246
-0.021245
-0.022338
-0.019442
-0.023189
-0.017779
-0.020611
-0.019937
-0.020838
-0.018684
-0.020257
-0.019783
-0.021439
-0.019977
-0.018602
-0.018800
-0.020210
-0.015625
-0.017133
-0.014793
-0.013071
-0.010842
-0.012504
-0.005330
-0.007624
-0.007232
-0.006833
0.000344
-0.001089
0.000372
-0.000555
0.006525
0.005579
0.007992
0.011001
0.016328
0.015752
0.017537
0.020449
0.023338
0.027951
0.030217
0.031819
0.037661
0.039805
0.042566
