0.081133
0.073052
0.064971
0.056890
0.048809
0.040728
0.032646
0.024565
0.016484
0.010321
0.011833
0.007589
0.003344
0.002935
-0.001310
0.000240
-0.002089
0.007087
0.008589
0.010090
0.007757
0.007339
0.003130
0.002709
-0.005375
-0.005798
-0.006221
-0.010476
-0.014732
-0.015160
-0.021331
-0.023675
-0.027934
-0.032151
-0.036411
-0.040672
-0.046845
-0.037722
-0.028607
-0.027142
-0.016089
-0.018452
-0.013183
-0.017458
-0.014106
-0.018385
-0.018852
-0.023133
-0.019752
-0.016419
-0.007382
-0.013576
-0.008357
-0.016456
-0.007445
-0.002205
0.002985
0.002474
0.000063
-0.004247
-0.004767
-0.009081
-0.007670
-0.011988
-0.014414
-0.011165
-0.015489
-0.012252
-0.016581
-0.013355
-0.021466
-0.018208
-0.022546
-0.011799
-0.004841
0.002103
-0.000371
0.002834
-0.003407
-0.000256
-0.006500
-0.003361
-0.000232
0.025398
0.019139
0.018490
0.012229
0.013441
0.012778
0.025166
0.022622
0.029425
0.028730
0.029888
0.025464
0.024753
0.020324
0.017748
0.015169
0.010772
0.019300
0.014854
0.014106
0.004106
0.007048
-0.001105
-0.003715
-0.006330
-0.012639
-0.002315
0.004258
0.003457
-0.001027
-0.003676
-0.008165
-0.003482
-0.002439
0.009537
0.003195
0.005993
0.001474
0.000603
-0.002099
-0.004805
0.019822
0.024355
0.021614
0.015243
0.016120
0.009744
0.003406
0.000648
0.003309
0.002344
-0.000433
-0.005018
-0.011410
-0.012396
-0.016990
-0.017987
-0.026188
-0.009187
0.009495
0.015595
0.010957
0.017063
0.007063
0.009542
0.003105
0.010899
0.002677
0.003337
-0.003113
-0.006015
-0.014202
-0.008254
-0.012944
0.017673
0.016479
0.018834
0.010593
0.012890
0.004645
0.012182
0.009187
0.009685
0.004930
0.007194
0.005916
-0.004084
-0.005370
-0.013628
-0.014924
-0.021445
-0.024491
-0.022335
-0.006303
-0.004199
-0.005564
-0.015564
-0.011766
-0.016597
-0.017990
-0.022830
-0.022481
-0.013610
-0.009913
-0.007947
-0.016239
-0.005733
-0.012326
-0.007015
-0.008521
0.027226
0.020601
0.025772
0.017456
0.030991
