-0.066300
-0.060447
-0.050447
-0.044594
-0.034594
-0.024594
-0.014594
-0.004594
0.003333
0.005043
0.015043
0.010543
0.008122
0.009846
0.013641
0.017438
0.023304
0.022927
0.024665
0.028472
0.028154
-0.011290
-0.009517
-0.011896
-0.006005
-0.008325
-0.000377
-0.004737
-0.007035
-0.003180
-0.013646
-0.009826
-0.016172
-0.010255
-0.002297
0.003622
0.001383
0.009345
0.013231
0.008975
0.010835
0.000463
-0.007804
-0.003888
-0.004020
0.001929
0.003832
0.011808
0.013717
0.021695
0.017552
0.023469
0.027414
0.021284
0.027255
0.021153
0.029142
0.029091
0.031057
0.035035
0.026945
0.010932
-0.003025
-0.004982
-0.000955
0.001085
0.003088
-0.006767
-0.000733
-0.006582
0.003418
0.001549
0.001669
0.007720
0.009826
0.011895
0.002208
0.000415
-0.024870
-0.020737
-0.022503
-0.016407
-0.016160
-0.012006
-0.011741
-0.011464
-0.005350
-0.003118
-0.002816
0.001370
0.003582
0.007777
0.011977
0.016181
0.016531
-0.000429
-0.015423
-0.020737
-0.016472
-0.010293
-0.015558
-0.018889
-0.022195
-0.017891
-0.017416
-0.014993
-0.010671
-0.006344
-0.003901
-0.005222
-0.017809
-0.022868
-0.018491
-0.017853
-0.011594
-0.009069
-0.004671
-0.003996
-0.007030
-0.002608
-0.001894
0.000645
0.001383
0.005832
0.012134
0.018438
0.017363
0.021832
0.018947
0.019759
0.005893
0.014064
0.003982
0.004876
0.000334
0.008519
0.007639
0.008547
-0.003120
-0.011114
-0.004706
-0.003677
0.000948
0.005577
0.006598
0.005889
-0.001914
-0.006115
-0.004972
-0.010879
-0.006211
-0.005019
-0.000297
0.000917
0.000394
-0.007099
-0.000590
-0.001051
0.005467
0.008470
0.011522
0.012850
0.010734
0.013823
0.008309
0.007992
0.012842
0.012519
-0.003099
-0.010103
-0.015356
-0.013847
-0.013970
-0.010708
-0.005754
-0.004153
-0.004212
0.002439
-0.000929
0.002401
-0.007588
-0.007531
-0.014055
-0.012294
-0.013803
-0.013681
-0.008593
-0.005135
-0.000034
0.001812
0.002047
0.003927
0.004202
0.009349
0.011235
0.014784
0.016734
0.021911
