0.120691
0.110445
0.100977
0.090977
0.081262
0.072080
0.062080
0.056197
0.046768
0.044442
0.036345
0.032362
0.024818
0.022405
0.013205
0.013695
0.006673
0.003875
-0.002929
0.000053
-0.006008
-0.009712
-0.009779
-0.012519
-0.021217
-0.017312
-0.027085
-0.024822
-0.024231
-0.033970
-0.026198
-0.029521
-0.035575
-0.034278
-0.033831
-0.043330
-0.034358
-0.043158
-0.038947
-0.043761
-0.039087
-0.045147
-0.035677
-0.042956
-0.037424
-0.036519
-0.045405
-0.034802
-0.041336
-0.032692
-0.032729
-0.035612
-0.029418
-0.027148
-0.024404
-0.029393
-0.020999
-0.022423
-0.023155
-0.020379
-0.014769
-0.002863
-0.011062
-0.000631
0.003950
0.001899
0.003377
0.002334
0.008126
0.001752
0.018829
0.014806
0.021434
0.022562
0.019940
0.023735
0.024233
0.023880
0.021538
0.025111
0.021201
0.020477
0.027491
0.018802
0.022660
0.023572
0.023442
0.025023
0.027153
0.027875
0.029381
0.028492
0.028207
0.026422
0.026695
0.027495
0.026086
0.022083
0.021941
0.025419
0.017541
0.016304
0.016472
0.015952
0.012684
0.012164
0.008735
0.008579
0.009201
0.006048
-0.003650
0.001154
-0.005575
-0.004193
-0.006483
-0.011622
-0.011562
-0.018229
-0.013939
-0.019389
-0.017515
-0.022012
-0.023294
-0.019782
-0.022803
-0.022773
-0.025939
-0.022758
-0.032404
-0.021343
-0.030478
-0.025060
-0.024023
-0.022045
-0.022654
-0.024045
-0.025145
-0.028951
-0.019292
-0.020143
-0.014315
-0.016266
-0.011281
-0.012824
-0.007042
-0.010661
-0.002678
-0.006138
0.000264
-0.000181
0.009745
0.010505
0.022491
0.021030
0.034023
0.035641
0.028459
0.027701
0.027121
0.025190
0.025842
0.025433
0.021779
0.023421
0.018657
0.015270
0.019492
0.019885
0.010414
0.011549
0.006869
0.005934
-0.001485
0.001510
-0.004425
-0.000249
0.001182
-0.000892
-0.005717
0.000148
0.003724
0.001737
-0.000848
-0.003320
-0.010067
-0.013475
-0.018808
-0.015408
-0.008352
-0.012836
-0.014501
-0.008663
-0.004380
-0.009359
-0.000715
-0.004424
0.003112
0.005621
0.006735
0.006754
0.003038
0.004779
-0.002824
-0.003716
-0.008098
-0.007681
-0.008740
-0.015905
