0.048437
0.050507
0.039799
0.037320
0.043788
0.036835
0.035140
0.033573
0.035829
0.028881
0.030672
0.032686
0.028663
0.027655
0.027221
0.026094
0.021945
0.021004
0.019668
0.019461
0.021100
0.020964
0.020400
0.020005
0.019329
0.015942
0.020528
0.014396
0.015172
0.014410
0.013293
0.011818
0.011508
0.011120
0.010677
0.009680
0.008281
0.003220
0.004659
0.000441
-0.001628
-0.001983
-0.002773
-0.004194
-0.005404
-0.005868
-0.005717
-0.008174
-0.013865
-0.013554
-0.013517
-0.015074
-0.011470
-0.013804
-0.015495
-0.016361
-0.015940
-0.017611
-0.017979
-0.015821
-0.016356
-0.013922
-0.016273
-0.017729
-0.017999
-0.018165
-0.018829
-0.018928
-0.017367
-0.018266
-0.017470
-0.014982
-0.015205
-0.014601
-0.012013
-0.010164
-0.009473
-0.005417
-0.003445
-0.003136
-0.001705
0.001072
0.003570
0.010526
0.011113
0.019917
0.019731
0.023305
0.030698
0.033517
0.040151
0.046075
0.050297
0.058367
0.062546
-0.072283
-0.062757
-0.057122
-0.046886
-0.042671
-0.032906
-0.030345
-0.019856
-0.017257
-0.007257
-0.009109
0.000178
0.001953
0.010788
0.006587
0.007821
0.016679
0.010037
0.019133
0.012301
0.014960
0.019662
0.018482
0.017416
0.015817
0.013501
0.013629
0.016947
0.009446
0.014167
0.011253
0.009897
0.010258
0.007793
0.005509
0.005077
0.004944
-0.002424
0.006649
-0.001985
-0.000365
-0.000090
0.000472
0.000793
-0.005240
-0.005346
-0.007658
-0.008354
-0.009101
-0.008130
-0.009960
-0.010259
-0.011102
-0.010921
-0.011760
-0.011601
-0.013843
-0.014346
-0.013287
-0.013115
-0.011407
-0.011799
-0.011126
-0.010904
-0.010835
-0.013030
-0.016482
-0.013917
