-0.166206
-0.155243
-0.145088
-0.135011
-0.125166
-0.115243
-0.105608
-0.095608
-0.086362
-0.076362
-0.068546
-0.058915
-0.051119
-0.042115
-0.036364
-0.028305
-0.023611
-0.016178
-0.011803
-0.003369
-0.000771
0.000931
0.001195
0.008083
0.014854
0.012326
0.017937
0.022689
0.026647
0.029558
0.035912
0.035797
0.043634
0.039491
0.043818
0.044813
0.049899
0.042214
0.048387
0.048668
0.047714
0.056418
0.048998
0.051765
0.059067
0.046209
0.052568
0.048195
0.045139
0.037841
0.047376
0.036355
0.041739
0.037618
0.042773
0.033138
0.041195
0.022017
0.029706
0.022821
0.022624
0.020678
0.014190
0.019554
0.011474
0.005129
0.014793
-0.002971
0.000474
-0.009292
0.000179
-0.012610
-0.007813
-0.015373
-0.014613
-0.018268
-0.018825
-0.024551
-0.018590
-0.030396
-0.031060
-0.031352
-0.035711
-0.035470
-0.028795
-0.034990
-0.038045
-0.035046
-0.037352
-0.042989
-0.037933
-0.042394
-0.041008
-0.041960
-0.041623
-0.044172
-0.041079
-0.037035
-0.038628
-0.035304
-0.036440
-0.035787
-0.031854
-0.030969
-0.031265
-0.025887
-0.025785
-0.022493
-0.018818
-0.017043
-0.018230
-0.012915
-0.012970
-0.004505
-0.005874
0.000520
0.001964
0.010778
0.009909
0.018731
0.018261
0.025573
0.027685
0.034866
0.036539
0.043716
0.045791
0.053476
0.057739
0.063645
-0.169650
-0.158921
-0.148921
-0.138921
-0.128921
-0.120379
-0.110379
-0.100379
-0.092458
-0.082458
-0.073185
-0.068047
-0.058047
-0.048769
-0.044934
-0.034934
-0.029835
-0.021158
-0.012581
-0.003190
-0.000063
0.009234
0.010526
0.020526
0.020427
0.029740
0.029186
0.038602
0.038764
0.047518
0.044037
0.053378
0.052634
0.061428
0.053483
0.062307
0.057726
0.066575
0.058326
0.066519
0.047563
0.052558
0.040855
0.048725
0.031697
0.040194
0.031723
0.039256
0.034335
0.039569
0.027435
0.035167
0.021903
0.030636
0.024230
0.033437
0.014389
0.023592
0.014877
0.013649
0.021915
0.009588
0.004257
0.012986
0.006284
0.015084
0.010473
0.020473
0.017319
0.026511
-0.003805
-0.000270
-0.004546
0.001243
-0.031769
-0.031210
-0.026036
-0.029730
