-0.055194
-0.047974
-0.040258
-0.032575
-0.025291
-0.021179
-0.013907
-0.008420
-0.003780
-0.003965
0.001670
0.002090
0.006923
0.005826
0.011626
0.009493
0.017031
0.017588
0.017050
0.016273
0.017599
0.015193
0.017921
0.017352
0.018783
0.012348
0.015135
0.008557
0.011968
0.006326
0.012274
0.012346
0.014504
0.012274
0.012146
0.007931
0.011231
0.001315
0.008104
-0.002172
0.005563
0.002307
0.006321
0.001650
0.004583
0.002742
0.004657
-0.006046
0.000100
0.002240
0.004011
-0.001410
-0.007540
-0.000630
-0.003438
-0.003012
-0.000786
-0.003577
-0.002093
0.000108
-0.007925
-0.004449
-0.008273
-0.009060
-0.000174
-0.010527
-0.012787
-0.018871
-0.018005
-0.008340
-0.010930
-0.009512
-0.002366
-0.003841
0.001878
-0.000253
-0.003402
0.001756
-0.003937
-0.003003
-0.003441
0.001199
0.003344
-0.000104
-0.000065
-0.002642
0.003175
-0.000286
-0.008331
-0.008345
-0.005879
-0.012351
-0.005577
-0.005886
-0.000509
0.000857
0.002380
-0.001508
0.000913
0.001785
0.001086
0.001927
0.000108
0.001686
0.002776
0.003848
0.006477
0.002171
0.004437
0.011281
0.002905
0.006864
0.003162
0.007244
0.003310
0.008016
0.004321
0.000084
-0.001769
0.002869
0.002424
0.006383
0.007201
0.005203
0.005981
0.003413
0.000314
-0.002164
0.005821
-0.006589
-0.000794
-0.009144
-0.007247
-0.004012
-0.010987
