0.043412
0.043794
0.033794
0.037906
0.035660
0.026220
0.031133
0.021693
0.021698
0.019685
0.025382
0.015382
0.017614
0.014986
0.012378
0.016844
0.014222
0.003945
0.012060
0.007163
0.004527
0.005831
-0.001633
0.003354
0.002662
-0.001969
0.001597
-0.000506
-0.008826
-0.003014
-0.005123
-0.006657
-0.008193
-0.011734
-0.009595
-0.012564
-0.013284
-0.013707
-0.017232
-0.013438
-0.012749
-0.022474
-0.019270
-0.023932
-0.017378
-0.021199
-0.018603
-0.019350
-0.017596
-0.019502
-0.018044
-0.017442
-0.018534
-0.019365
-0.016852
-0.021578
-0.014133
-0.014731
-0.014805
-0.015998
-0.014448
-0.013194
-0.018550
-0.012708
-0.013444
-0.012853
-0.013373
-0.009343
-0.011789
-0.015633
-0.010108
-0.008627
-0.010936
-0.007704
-0.006918
-0.008246
-0.007519
-0.008686
-0.007542
-0.004649
-0.005399
-0.003408
-0.001736
-0.000157
-0.000114
0.002081
0.001998
-0.000366
0.001379
0.003038
0.006061
0.006115
0.010363
0.008830
0.008178
0.008630
0.010140
0.009265
0.011705
0.015363
0.015554
0.016527
0.016295
0.016640
0.018559
0.018887
0.019715
0.021859
0.022643
0.020101
0.025005
0.023627
0.022368
0.019675
0.020496
0.016143
0.015278
0.007496
0.007581
0.001584
0.001829
-0.006919
-0.006477
-0.013487
-0.017221
-0.025667
-0.026889
-0.034678
-0.038749
-0.047746
0.112671
0.108716
0.098716
0.088716
0.078716
0.078986
0.069820
0.059820
0.056623
0.046623
0.038355
0.042666
0.030204
0.031064
0.021064
0.018527
0.016024
0.006830
0.012414
0.002414
0.000499
-0.005405
-0.002553
-0.008580
-0.007435
-0.012738
-0.013325
-0.022492
-0.010811
-0.020811
-0.013262
-0.023262
-0.020478
-0.020004
-0.029278
-0.024526
-0.033029
-0.016964
-0.025564
-0.029857
-0.021471
-0.028673
-0.025464
-0.033379
-0.030347
-0.032866
-0.035496
-0.027490
-0.034851
-0.033660
-0.036495
-0.036180
-0.023339
-0.031444
-0.032740
-0.030994
-0.033654
-0.036314
-0.024771
-0.034771
-0.033575
-0.027326
-0.026442
-0.034724
-0.025039
-0.027308
-0.027939
-0.017435
-0.021047
-0.015753
-0.021081
-0.011545
-0.016996
-0.011937
-0.013014
-0.012276
-0.007789
-0.015877
-0.006951
-0.010910
0.002003
-0.008439
-0.000537
0.000031
-0.007328
0.004659
0.004403
-0.003915
0.009703
-0.000297
0.010760
0.006741
0.009354
0.002098
0.017887
0.010917
0.009218
0.015213
0.005934
0.016380
0.007470
0.015312
0.014491
0.019140
0.009478
0.018344
0.013440
0.015913
0.013918
0.012867
0.020249
0.010249
0.010616
0.012835
0.013648
0.013146
0.014447
0.012873
0.014661
0.017889
0.007889
0.012557
0.006495
0.009198
0.007614
0.012279
0.009418
0.012449
0.003053
0.009251
