-0.067074
-0.060899
-0.050899
-0.042185
-0.032185
-0.032796
-0.022796
-0.017880
-0.009573
-0.013530
-0.003530
-0.004440
0.004292
-0.001211
0.008789
0.007133
0.005927
0.013463
0.007334
0.011200
0.017482
0.010303
0.012167
0.020976
0.012341
0.012247
0.013828
0.020623
0.013029
0.020661
0.012032
0.016491
0.017433
0.015656
0.020202
0.018496
0.016838
0.020650
0.014863
0.021382
0.009196
0.014260
0.011350
0.013425
0.019637
0.013107
0.019746
0.009958
0.011053
0.014014
0.008157
0.006417
0.005437
0.002333
-0.000392
0.008161
-0.001665
-0.003488
0.001491
0.003276
0.002620
0.000897
0.001694
-0.000642
-0.001157
-0.000615
0.000293
-0.001216
0.000793
-0.006487
-0.005801
0.000040
-0.000614
-0.004643
-0.001472
-0.006489
-0.005999
0.000263
-0.006309
-0.005098
-0.004859
-0.002958
-0.007721
-0.007422
-0.006127
-0.003159
-0.010160
-0.009471
-0.008446
-0.008059
-0.004717
-0.007959
-0.012505
-0.008142
-0.009350
-0.012571
-0.010481
-0.007392
-0.010595
-0.010135
-0.016607
-0.014506
-0.008456
-0.010980
-0.008882
-0.017008
-0.007682
-0.008554
-0.007820
-0.006066
-0.011929
-0.003928
-0.005521
-0.003475
0.001867
-0.001416
-0.013731
-0.003731
-0.002099
-0.000450
0.003509
-0.003613
-0.002706
0.000881
-0.001281
-0.000765
-0.000635
0.000165
-0.004530
0.001695
-0.000664
0.001071
-0.008331
0.000281
0.001257
0.004624
-0.003271
0.003230
0.002297
0.001318
0.004216
0.000650
0.002756
0.006659
0.006569
-0.000473
0.001138
0.007110
-0.001628
-0.002375
0.003932
-0.003597
-0.000730
0.002851
-0.001533
0.001644
0.001706
0.002504
-0.004890
0.000832
-0.000459
0.000524
0.001080
0.004757
0.005233
-0.001994
0.000784
0.005511
0.005787
-0.000533
0.004543
0.005058
0.006780
0.003009
0.005488
0.011267
0.009864
0.005394
0.006420
0.011687
0.003095
0.007874
0.008673
0.011653
0.015940
0.014418
0.006579
0.012071
0.011698
0.005802
0.012152
0.012095
0.014731
0.006148
0.010549
0.013056
0.015532
0.004173
0.006530
0.012228
0.000996
0.005120
0.008313
0.001604
0.003215
0.006248
0.000276
-0.002823
0.004168
0.007552
-0.005946
-0.003124
0.000681
-0.009597
-0.003780
-0.005353
-0.009114
-0.005487
-0.006675
-0.012281
-0.007126
-0.007959
-0.011035
-0.010922
-0.006445
-0.008570
-0.014730
-0.009200
-0.009315
-0.028178
-0.019292
-0.012739
-0.015304
-0.014557
-0.010868
-0.018871
-0.012395
-0.009981
-0.018848
-0.012945
-0.012427
-0.015556
-0.013318
-0.009345
-0.015633
-0.011069
-0.007166
-0.008754
-0.003045
0.001456
0.007147
0.006095
0.011759
0.016149
0.013122
0.018746
0.025029
0.023734
0.030609
0.035579
