0.126310
0.117566
0.107566
0.097566
0.090442
0.080442
0.071693
0.062941
0.056239
0.046642
0.040765
0.031165
0.023636
0.018125
0.010145
0.006215
-0.000177
-0.006157
-0.012968
-0.017818
-0.023083
-0.027192
-0.027070
-0.036693
-0.034422
-0.038723
-0.034095
-0.042610
-0.038976
-0.042454
-0.039503
-0.041006
-0.042942
-0.041536
-0.044007
-0.044222
-0.040575
-0.041415
-0.040121
-0.042146
-0.037428
-0.035153
-0.035784
-0.036256
-0.033944
-0.029588
-0.030575
-0.018308
-0.022652
-0.017610
-0.007605
-0.017851
-0.009953
-0.008571
-0.011668
-0.011801
-0.012795
-0.010340
-0.009250
-0.008170
-0.007722
-0.004794
-0.001364
-0.000022
0.002419
0.003276
0.004460
0.006704
0.006542
0.008124
0.010830
0.016249
0.006733
0.013187
0.019054
0.018542
0.020322
0.021452
0.021966
0.021612
0.019711
0.017579
0.014109
0.012683
0.010775
0.008397
0.010061
0.010662
0.006470
0.006138
0.006294
0.010488
0.008678
0.007767
0.007231
0.004837
0.008715
0.006051
0.007435
0.014611
0.011963
0.013426
0.014917
0.010886
0.015250
0.008728
0.009458
0.009970
0.007008
0.006946
0.007627
0.006035
0.010188
0.009147
0.002379
0.002534
-0.001501
-0.001646
-0.001718
0.001039
0.000108
0.000582
0.001577
-0.001537
-0.003716
-0.008718
-0.010818
-0.011642
-0.014706
-0.017733
-0.017917
-0.018026
-0.023762
-0.021367
-0.021585
