-0.060063
-0.065970
-0.059253
-0.062009
-0.054535
-0.055263
-0.052626
-0.047400
-0.047370
-0.043629
-0.039145
-0.043949
-0.041130
-0.041661
-0.037918
-0.042704
-0.032655
-0.031318
-0.031101
-0.016569
-0.023960
-0.020022
-0.010117
-0.010633
-0.015427
-0.009228
0.000500
0.002974
-0.001797
-0.001933
-0.003175
-0.001234
0.006296
0.008049
0.003471
0.005978
0.010367
0.005232
0.014667
0.006179
0.013203
0.007511
0.009309
0.011113
0.008059
0.013825
0.009828
0.011657
0.017251
0.017610
0.019831
0.020388
0.018305
0.020365
0.020740
0.025670
0.019816
0.025890
0.024598
0.023311
0.026576
0.025488
0.021758
0.025623
0.019421
0.022527
0.015771
0.017574
0.014241
0.013384
0.011584
0.012655
0.008017
0.010818
0.006171
0.006116
0.003790
0.002983
-0.000680
-0.005311
-0.006869
-0.010521
-0.015536
-0.018600
-0.020721
-0.028601
-0.024724
-0.029724
-0.035475
-0.038533
-0.039066
-0.043264
-0.041086
-0.048576
-0.045402
0.087030
0.079650
0.069650
0.063198
0.057493
0.050096
0.045699
0.035881
0.034102
0.029322
0.020814
0.018651
0.013306
0.006851
0.003559
-0.003443
-0.005064
-0.007050
-0.016670
-0.014189
-0.018413
-0.028032
-0.015134
-0.024191
-0.020977
-0.020742
-0.024410
-0.018410
-0.026360
-0.019241
-0.020700
-0.015636
-0.019129
-0.014070
-0.020156
-0.014374
-0.012093
-0.011877
-0.004599
-0.008659
-0.002308
-0.007490
-0.001323
-0.004642
-0.002005
-0.004961
-0.002325
0.004022
-0.002827
0.002400
-0.000721
0.005068
-0.000856
0.000843
0.003863
-0.001318
0.005221
0.001907
0.006783
0.008491
0.014860
0.015649
0.019052
0.020772
0.021569
0.030741
0.028005
0.037024
