-0.073423
-0.064919
-0.054919
-0.050904
-0.040904
-0.030904
-0.023897
-0.013897
-0.009882
0.000118
0.004132
0.006648
0.006137
0.008652
0.000686
0.007691
0.002716
0.009720
0.012199
0.014710
0.002242
0.012242
0.008761
0.009773
0.010752
0.016258
0.021764
0.015286
0.019295
0.017312
0.012334
0.019305
0.002350
-0.004119
-0.000107
0.006899
0.016899
0.008905
0.015912
0.018430
0.011973
0.011503
0.012530
0.012030
0.013060
0.017081
0.012138
0.017656
0.023175
0.016747
0.017756
0.012831
0.013879
0.022387
0.002533
0.011043
0.010613
0.005720
0.006788
0.009346
0.008932
0.015957
0.000652
0.001738
0.008768
0.002438
0.007986
-0.011702
-0.012071
-0.015396
-0.011315
-0.013181
-0.007617
-0.009440
-0.009779
-0.004209
-0.003064
-0.010762
-0.003742
-0.014363
-0.011722
-0.014959
-0.015247
-0.015561
-0.015836
-0.016104
-0.009036
-0.007830
-0.005154
-0.003938
-0.002750
-0.005908
-0.001752
-0.016563
-0.018223
-0.012593
-0.020090
-0.012999
-0.017531
-0.013340
-0.012048
-0.010749
-0.009477
-0.006719
-0.003956
-0.002635
-0.002752
0.001471
0.001367
0.007008
-0.001725
0.003956
0.001011
0.006699
-0.003432
0.002266
-0.003493
0.000782
0.005060
-0.000658
0.005059
-0.002085
0.002218
0.000832
-0.000540
0.002359
-0.001858
0.005307
0.003977
0.009732
-0.000053
0.009947
0.003022
0.010173
0.003285
0.006258
0.006430
0.010818
0.002576
0.011176
0.005800
0.014403
0.011845
0.017663
0.010957
0.013975
-0.010688
-0.003455
-0.012825
-0.009719
-0.007985
-0.007617
-0.011356
-0.005473
-0.007840
-0.008788
-0.006989
-0.013363
-0.007450
-0.008339
-0.003777
-0.007384
-0.006873
-0.004995
0.000947
0.001489
0.003392
0.005275
0.001818
0.009130
0.007046
0.006324
0.004253
0.003569
0.009566
0.000923
0.008264
0.007639
0.014986
0.013031
0.015093
0.005293
0.012658
0.009499
0.016871
-0.001992
0.004088
-0.012014
-0.003314
-0.012787
-0.005378
-0.009609
-0.004775
-0.012846
-0.005418
-0.005697
-0.003393
-0.001079
