0.115575
0.105948
0.095948
0.087754
0.077754
0.069557
0.059557
0.050987
0.047745
0.040217
0.032737
0.030838
0.023284
0.016089
0.015853
0.007241
0.006609
0.001087
-0.001066
-0.006333
-0.004137
-0.009472
-0.016802
-0.015498
-0.024863
-0.018805
-0.025535
-0.025215
-0.031369
-0.024869
-0.029196
-0.029869
-0.034918
-0.029579
-0.038679
-0.035097
-0.040008
-0.037862
-0.042301
-0.035180
-0.032641
-0.041803
-0.034138
-0.043317
-0.031451
-0.036350
-0.031700
-0.029921
-0.037846
-0.025641
-0.030845
-0.025727
-0.024050
-0.026861
-0.029710
-0.019389
-0.017101
-0.020807
-0.016184
-0.013817
-0.005594
-0.009166
-0.002235
0.000281
0.003337
-0.004927
0.007825
0.008046
0.013911
0.019317
0.016442
0.015114
0.025067
0.018865
0.024831
0.023920
0.025590
0.027567
0.025880
0.025970
0.028919
0.029933
0.029932
0.026210
0.028161
0.022407
0.021809
0.020794
0.020054
0.021567
0.016716
0.025116
0.024056
0.020902
0.019568
0.019476
0.020067
0.017057
0.013594
0.016291
0.014409
0.012074
0.008235
0.007779
0.005566
0.006148
0.005380
0.003432
-0.000902
-0.002643
-0.005983
-0.010638
-0.010068
-0.013030
-0.013489
-0.017164
-0.019209
-0.022016
-0.025027
-0.025085
-0.028104
-0.031722
-0.028923
-0.026946
-0.030473
-0.025220
-0.027996
-0.031882
-0.025963
-0.031411
-0.027627
-0.028227
-0.027479
-0.017162
-0.015475
-0.009837
-0.008582
-0.010406
-0.013741
-0.010278
-0.002944
0.001285
0.008794
0.013065
0.012059
0.016074
0.013605
0.008998
0.011839
0.014230
0.018673
0.023059
0.027177
0.026079
0.026395
0.022491
0.013821
0.017113
0.016598
0.012510
0.003904
0.012280
0.012277
0.011449
0.004364
0.010854
0.010399
0.014169
0.012669
0.015519
0.012438
0.009140
0.005336
0.010935
0.009569
0.008795
0.007025
0.007637
-0.002065
0.000414
-0.001053
-0.006007
-0.004631
-0.003743
-0.012525
-0.001906
0.004134
0.007489
0.000391
-0.007367
-0.007291
-0.012070
-0.019449
-0.015903
-0.013229
-0.013071
-0.020706
-0.009394
-0.008248
-0.015444
-0.004516
-0.001960
-0.001055
0.000983
-0.007163
0.006302
0.000032
-0.003148
