-0.155140
-0.143475
-0.133396
-0.123543
-0.113543
-0.103543
-0.095602
-0.085602
-0.077816
-0.070802
-0.060881
-0.053186
-0.046755
-0.038082
-0.034280
-0.025077
-0.026887
-0.019089
-0.012793
-0.008292
-0.004197
0.000740
0.006230
0.009185
0.017310
0.018447
0.019651
0.025416
0.023698
0.030670
0.029926
0.037589
0.029357
0.039247
0.037985
0.046679
0.036865
0.045600
0.036775
0.042849
0.041036
0.047354
0.045435
0.040668
0.050019
0.041165
0.043794
0.036896
0.045790
0.034429
0.032935
0.030956
0.034764
0.032054
0.030661
0.025872
0.030261
0.019693
0.025514
0.013085
0.019965
0.014843
0.014091
0.010655
0.015352
0.001414
0.007725
0.003598
0.003616
0.000486
-0.004418
-0.005248
-0.009481
-0.004301
-0.016634
-0.011927
-0.020798
-0.013096
-0.025464
-0.019347
-0.026525
-0.031506
-0.029799
-0.035325
-0.028135
-0.035990
-0.035071
-0.034574
-0.034956
-0.036770
-0.038450
-0.037095
-0.042161
-0.034643
-0.042500
-0.034780
-0.039394
-0.032305
-0.036581
-0.030966
-0.035712
-0.031618
-0.030506
-0.028344
-0.029589
-0.022356
-0.025742
-0.018296
-0.023013
-0.020289
-0.019251
-0.014196
-0.013397
-0.014133
-0.006072
-0.005931
0.000186
0.002672
0.009646
0.012125
0.017183
0.019209
0.026178
0.029284
0.035837
0.039356
0.045907
0.047058
0.055557
0.057569
-0.143822
-0.133822
-0.123822
-0.113822
-0.104460
-0.094460
-0.084460
-0.075007
-0.065007
-0.055007
-0.045007
-0.036281
-0.026918
-0.021814
-0.012356
-0.010275
-0.000275
0.000106
0.010106
0.011116
0.021116
0.021699
0.031179
0.030672
0.039560
0.032394
0.041808
0.039528
0.048952
0.041381
0.050818
0.034136
0.044136
0.029976
0.039451
0.025618
0.035112
0.029697
0.039203
0.031897
0.040937
0.025145
0.034686
0.025107
0.026627
0.034573
0.020763
0.027565
0.008886
0.015499
0.004667
-0.000059
0.007848
-0.001668
0.001195
0.007342
0.000745
0.000755
0.007499
0.002687
0.009296
0.000964
0.006728
-0.000719
-0.007901
-0.003255
-0.013145
-0.004195
-0.007995
0.001795
-0.002065
0.007764
0.008130
0.017038
0.023387
0.031570
0.030525
0.026899
