-0.071674
-0.061674
-0.051674
-0.041674
-0.031674
-0.021674
-0.012002
-0.002307
0.001389
0.003874
0.013874
0.014326
0.015491
0.019760
0.029471
0.027005
0.025326
0.025877
0.032179
0.020762
0.017512
0.027255
0.013167
0.016544
0.016487
0.015415
0.008841
0.012019
0.007507
0.000515
-0.002723
-0.004774
-0.006360
-0.000429
-0.002644
-0.003593
-0.002424
0.002857
0.002608
0.002204
0.002012
0.005852
0.000866
0.002944
0.003011
0.005674
-0.006385
0.001442
-0.011959
-0.007596
-0.006700
-0.006823
-0.005680
-0.004423
-0.007366
-0.008756
-0.011359
-0.007138
-0.016015
-0.015879
-0.011382
-0.016602
-0.013462
-0.012487
-0.004556
-0.009957
-0.006112
-0.000328
0.002383
0.006886
0.009350
0.002747
0.005340
-0.001936
-0.001160
-0.002086
0.001998
0.005042
0.006390
0.013546
0.009925
0.018106
0.014168
0.012262
0.018717
0.015693
0.008493
0.001581
0.003561
0.002552
-0.006610
-0.007599
-0.009449
-0.011480
-0.012745
-0.008801
-0.006117
-0.007327
0.001286
-0.002204
-0.004475
-0.006653
0.000813
0.001546
0.004512
0.003649
0.007569
0.006235
