0.054851
0.049428
0.048598
0.038947
0.036125
0.039208
0.032134
0.033216
0.025818
0.026532
0.024984
0.031201
0.020539
0.022852
0.015785
0.020640
0.015809
0.014221
0.015211
0.008769
0.013286
0.007819
0.005564
0.008504
0.001719
0.009833
0.004342
-0.002412
0.006015
-0.001396
0.000606
0.000978
-0.003487
-0.009275
0.001521
-0.002607
-0.002183
-0.004326
-0.009771
-0.004052
-0.003572
-0.007685
-0.010770
-0.007298
-0.016303
-0.005520
-0.006586
-0.004985
-0.010975
-0.006679
-0.011353
-0.014035
-0.006631
-0.009933
-0.014568
-0.007748
-0.006273
-0.008497
-0.015792
0.001706
-0.008294
-0.007728
-0.012634
-0.005519
-0.007258
-0.011763
-0.005575
-0.011097
-0.008653
-0.009967
-0.008516
-0.007345
-0.004781
-0.007443
-0.007974
-0.006704
-0.005782
-0.000593
-0.006348
0.001398
-0.006485
-0.003672
-0.000094
-0.006153
-0.001823
-0.000297
-0.006363
-0.000823
0.001451
-0.000564
-0.000404
-0.001291
0.002538
0.001691
0.001218
-0.003670
0.001761
0.001341
0.003889
-0.001320
0.000872
0.002365
-0.003183
0.000589
0.004759
-0.001130
0.001951
0.004661
0.002559
0.000834
0.004002
0.005287
0.008504
0.004180
0.002149
0.005787
0.003376
0.007831
0.010011
0.009939
0.009472
0.009050
0.008231
0.003200
0.007783
0.008907
0.007379
0.001993
0.006263
0.005136
0.126245
0.116245
0.106983
0.099261
0.089261
0.079261
0.069261
0.059261
0.049261
0.039261
0.029261
0.023739
0.017541
0.010536
0.002728
-0.002034
0.001348
-0.003473
-0.009812
-0.008814
-0.018814
-0.022988
-0.027892
-0.028515
-0.027031
-0.024180
-0.024312
-0.026564
-0.030964
-0.022875
-0.027362
-0.017560
-0.027560
-0.019329
-0.027959
-0.022619
-0.027972
-0.018951
-0.025709
-0.020124
-0.023733
-0.022223
-0.018289
-0.020762
-0.016437
-0.023359
-0.018617
-0.019470
-0.018565
-0.022587
-0.017651
-0.018205
-0.014732
-0.016067
-0.009921
-0.017081
-0.013475
-0.011103
-0.006100
-0.009494
0.000648
-0.005037
-0.003744
-0.001519
-0.003092
0.004648
-0.000212
-0.003498
0.003285
0.000363
0.002851
-0.002647
-0.000330
0.002381
0.002995
-0.000732
0.003065
-0.000303
0.000946
-0.004873
-0.006060
-0.004096
0.002691
0.002154
-0.001143
0.006531
-0.002144
0.008715
0.000017
0.005421
-0.000314
0.006119
0.000722
-0.002219
0.006735
0.004485
-0.001873
0.004661
-0.000546
0.003733
0.000032
-0.007596
0.005357
0.001140
0.006056
0.000983
0.006101
0.000197
0.005852
0.001768
0.000244
0.002695
-0.006204
0.003714
-0.002324
0.004830
0.000165
-0.003101
0.010813
0.002891
-0.003981
-0.000436
-0.004539
0.001292
-0.000165
-0.000262
-0.000427
-0.000960
-0.000510
0.000586
