-0.042932
-0.035623
-0.032604
-0.022953
-0.023483
-0.016870
-0.017011
-0.013929
-0.009782
-0.007900
0.001566
-0.009926
-0.007283
-0.005872
-0.007235
-0.008910
-0.008829
-0.002995
-0.008071
-0.008625
-0.003458
-0.006739
-0.008786
-0.009956
-0.011109
-0.009676
-0.010450
-0.012060
-0.012141
-0.012528
-0.016156
-0.014995
-0.010265
-0.018098
-0.021843
-0.020669
-0.022185
-0.023544
-0.025891
-0.018432
-0.031622
-0.022464
-0.033946
-0.029353
-0.035079
-0.034212
-0.035027
-0.039073
-0.042101
-0.043599
-0.044935
-0.045613
-0.047964
-0.043562
-0.044401
-0.044748
-0.045612
-0.046134
-0.046481
-0.043784
-0.043476
-0.042145
-0.039293
-0.037804
-0.034277
-0.033643
-0.032333
-0.031028
-0.030759
-0.029464
-0.028356
-0.021939
-0.021173
-0.016992
-0.017255
-0.009658
-0.010614
-0.007649
-0.005022
0.000009
0.005542
0.008327
0.009736
0.017507
0.021658
0.022200
0.030136
0.032047
0.039294
0.043265
0.047570
0.054294
0.059990
0.066879
0.072742
-0.119217
-0.110459
-0.100459
-0.091481
-0.083123
-0.075382
-0.066202
-0.060294
-0.050294
-0.045393
-0.035393
-0.032124
-0.023749
-0.020040
-0.010238
-0.009952
-0.002959
0.002413
0.003792
0.011375
0.011207
0.015647
0.020295
0.023781
0.024508
0.032153
0.030794
0.033398
0.035233
0.037681
0.044386
0.043027
0.043642
0.043703
0.048192
0.042269
0.043025
0.042883
0.043544
0.043281
0.047340
0.039400
0.037260
0.038096
0.040614
0.039323
0.037350
0.035231
0.032999
0.039586
0.032048
0.039368
0.030324
0.032876
0.028556
0.027819
0.023932
0.023429
0.022936
0.021616
0.018224
0.015913
0.013447
0.015499
0.012052
0.007092
0.006263
0.006151
